var whistle = '{"N":6,"D":1024,"b":-0.44717287518776955,"kernelType":"linear","w":[0,0,0,0.00392156862745098,0.004976761303080365,-0.0039215686274509795,-0.01176470588235294,0,0.0024883806515401826,0.014930283909241095,-0.00822113255518337,-0.02745098039215686,-0.0039215686274509795,0,-0.004863024401815125,-0.014702810106710616,-0.014702810106710616,-0.01444937675828592,-0.04277739173169241,-0.048307891538848506,0.012328166356435674,0.0334983580447381,0.015183717257665789,-0.023177665188887434,-0.04136661632016697,-0.018912466580067934,-0.026084108163486407,-0.018167854763882503,0.019828299038932573,-0.01107529558424763,-0.010233758412834307,0.032787344697275796,0.06337113878597764,0.060698609157624456,0.053843799484312976,0.008933248983230155,0.02465717123823865,-0.0016213369825020946,-0.0039131628544323074,0.006201995478639581,-0.03420175928483325,0.048172215357831547,0.06071970991200885,0.06319920273192198,0.1470359435530782,0.09780714326046402,0.29190762789619534,0.4712929975909169,0.6198479424408507,0.7630355120512033,0.7049158861745064,0.49385783494820135,0.21980967614876162,0.08705447815467979,-0.009828724826444396,-0.1457986710103328,-0.19281455108711903,-0.11927762206293045,-0.019487976107207317,0.018579905968143844,-0.005682169245207298,0.056815410265852025,0.05541040823336861,0.034867380608776824,0.13497004693788095,0.12196983556316322,0.05977200747396901,0.0016812087990397545,-0.008866957859341391,0.045985166880361986,0.05646048194925836,0.018154850367583814,-0.014395491437194131,0.024478744201654357,0.022154438790962322,0.054238554891818405,0.09141558847459288,0.08183520237720375,0.02520410495786541,-0.08070471859815259,-0.030298150143719886,0.03139178423020535,0.01943706379747423,0.01707839306786932,0.014986135459636243,0.007578136629047591,-0.02905038248189462,0.016247335942678062,0.03793036058691154,0.0643039488554575,0.04896642767374909,0.005081538697541008,-0.022531102044878584,-0.03388746757417972,0.01645881648817428,0.04470504060165563,0.06623940929192504,0.10789799666990191,0.10725032605832123,0.1069210927324046,0.13921802581210943,0.07812841257091752,0.03761705542194917,0.04267663460337427,0.050195087908936474,0.10018147979068318,0.094735499535958,0.029093173810190387,-0.02988548010959262,-0.03611343513412643,-0.05333357868599438,-0.03173095264253282,0.025617119996362105,0.019491976136985598,-0.028173372523996563,-0.04283425006414293,-0.05362986357550288,-0.03777167763499488,-0.021815707577527495,-0.011517981019848092,-0.015703543491098093,-0.0557670469980232,-0.060096406631727384,-0.05196163454941024,-0.05992066342793306,-0.08795136649341147,-0.008076765809566372,0.011563866281383284,-0.038970013053776106,-0.07936874076905107,-0.02198332979988451,0.009618298397810879,0.027644586783759695,0.018792574926668748,0.01943511780453508,-0.016855946313536742,-0.03791836735965559,-0.05715092365277062,-0.05345328184634126,-0.00011177067196188606,-0.025140212875185253,-0.05009685074370761,-0.05083521150923001,-0.04047959960068054,-0.028990530901721163,0.01648077600429021,0.002246920294007221,-0.012078733037789294,-0.002954321563880674,-0.020322073814928926,0.024902793020158992,0.012428923484753801,-0.016298187543318493,0.01708643360015437,0.03635390894596821,-0.05285164451661962,-0.046516966104686024,-0.004951828775605731,-0.00684154510878298,-0.024526622790936065,-0.059825872558696605,-0.059505574116233,-0.06649280216762128,-0.0878695553971221,-0.09764948952184416,-0.09737411689366773,-0.08100607100858741,-0.06437263902055487,-0.02016447859052445,-0.04624456648786836,-0.08897405939391483,-0.04162199566153081,-0.032782963577387,-0.0313083163195456,-0.020196424631864555,-0.05262716396181207,-0.06834864670288354,-0.05153461271954687,-0.03044323887981086,-0.05942081024494913,-0.023712437424570187,-0.04783996416084044,-0.028278149918457212,-0.02079703494316662,0.005324985520741531,0.013724016002074853,0.058660530436039256,0.04605699145142718,0.026330548234409855,0.03884528284523133,0.02342410525981089,0.018447343956730526,0.014464322760536389,0.020083626941483083,0.0073793308285528755,-0.01136233178838281,0.004869010897260995,0.05185390437995508,0.06599895571644745,0.032322988924128146,-0.0361453811754665,-0.056581232364389056,-0.024019756094086665,-0.017264022111371354,-0.01687491258192972,-0.041151095272164026,-0.03282788939167419,-0.020702264310294358,-0.0188434467636734,-0.029743837669494014,-0.03451805769751854,-0.032447739369037144,-0.029405620213421232,-0.03658837602599993,-0.04427799853542802,-0.04879878521502785,-0.045376516036774894,-0.044151281861215676,-0.05399106756611116,-0.0599017173959043,-0.033795669952666196,-0.02556126844596697,-0.024500663245041847,-0.018792554690304546,-0.004900936702236872,-0.004900936702236872,-0.001225234175559218,-0.006971255030718264,-0.003675702526677654,-0.00612617087779609,-0.01161875838453044,-0.015421177585420442,-0.02374438346591027,-0.014195943409861224,-0.003675702526677654,-0.004900936702236872,-0.004774220028024525,0,-0.0023237516769060882,0,0,0,0,0,0,0,0,0,0,0,0,0,0,-0.002450468351118436,-0.004900936702236872,-0.003675702526677654,-0.004900936702236872,-0.0023237516769060882,-0.011998908407167485,-0.01225234175559218,-0.008576639228914527,-0.009801873404473744,-0.009801873404473744,-0.007351405053355308,-0.007351405053355308,0,-0.004900936702236872,-0.011027107580032962,-0.015928044282269835,-0.014576093432498268,-0.02399781681433497,-0.01225234175559218,-0.017153278457829053,-0.030250704366343407,-0.027546802666800277,-0.014195943409861224,-0.00832320588048983,0,-0.016773128435192006,-0.03278595682510993,-0.02556126844596697,-0.014195943409861224,-0.009801873404473744,-0.009801873404473744,-0.021420631789004184,-0.02323751676906088,-0.016266261738342617,-0.01787164593653888,-0.009675156730261397,-0.001225234175559218,-0.007351405053355308,0,0,0,-0.001225234175559218,-0.002450468351118436,0,0,0,0,0,0,0,0,0,0,-0.009295006707624353,-0.018590013415248706,-0.006971255030718264,-0.002450468351118436,-0.001225234175559218,0,-0.002450468351118436,-0.027885020122873055,-0.032532523476685234,-0.002450468351118436,0,-0.03219430602061245,-0.04453143188385272,-0.051375970240358636,-0.04001064520425289,-0.007351405053355308,-0.018125079284963576,-0.03384656202603505,-0.04778907208747159,-0.038531977680268975,-0.032207285793559554,-0.014589073205445377,-0.02450468351118436,-0.038067043549983845,-0.02949040432106932,-0.014322660084073572,0.00015164920168698678,0.006467381581591807,-0.01135337228157822,-0.041151095272164026,-0.035531791091217325,-0.03430655691565811,-0.029405620213421232,-0.04288319614457264,-0.047784132846809504,-0.03300549813925539,-0.021902565958378938,-0.020639419482397975,-0.03430655691565811,-0.03675702526677654,-0.052178202852196987,-0.056825706206009165,-0.038954060269470285,-0.026194851817028707,0,-0.06679714782577907,-0.08978123124641525,-0.09603411879842372,-0.1151309989105218,-0.13456609647869266,-0.11707460056479085,-0.09679441884369779,-0.08568252715601674,-0.09142854801117578,-0.08027472375693047,-0.05255835287483403,-0.06954298209188647,-0.03439134102330619,-0.03265924015089758,-0.04782698438789333,-0.03046220514820384,-0.015928044282269835,-0.028180386037862014,-0.029405620213421232,-0.019603746808947487,-0.01225234175559218,0,-0.013477575931151398,-0.022054215160065924,-0.017153278457829053,-0.015928044282269835,-0.00612617087779609,0,0,0,0,0,0,0,0,0,0,0,0,0,0,-0.003675702526677654,0,0,0,0,0,0,0,0,0,0,0,0,0,0,0,0,-0.007351405053355308,-0.004900936702236872,-0.011027107580032962,-0.010900390905820616,-0.01225234175559218,0,-0.007351405053355308,-0.02399781681433497,-0.04317948103408115,-0.061051126970620026,-0.05724870776973003,-0.0659520636728569,-0.07414855287913438,-0.0638817453443755,-0.02450468351118436,-0.015928044282269835,-0.024251250162759662,-0.04626353275626133,-0.0621496444719669,-0.05150268691457098,-0.026955151862302795,-0.03308132274009889,-0.029405620213421232,-0.02561618078547834,-0.013401751330307902,0.004976761303080365,-0.022054215160065924,-0.02983264204328462,-0.02197839055922243,-0.025729917686743577,-0.025729917686743577,-0.007351405053355308,-0.0035998779258341615,-0.02657500183966575,-0.03747539274548636,-0.040356903192610705,-0.03036546828602823,-0.060494395218821356,-0.08168652618687548,-0.05775557446657942,-0.024969617641469488,-0.061542020646799374,-0.07011865987571392,-0.038266591577316746,-0.013942510061436528,-0.011027107580032962,0.004976761303080365,0.0075788788558857866,0.014930283909241095,-0.019527922208103995,-0.03308132274009889,-0.019603746808947487,-0.012176517154748687,-0.011027107580032962,-0.011027107580032962,0,-0.020322114287657317,0,-0.01225234175559218,-0.008576639228914527,-0.003675702526677654,0,-0.013477575931151398,-0.03185608856453967,-0.03430655691565811,-0.035024924394367926,-0.05065760276164881,-0.05053088608743646,-0.05691049031365725,-0.05695242288022151,-0.04410843032013185,-0.029870554343706363,-0.03794032687577149,-0.05141790280692289,-0.06316337786566568,-0.05788229114079177,-0.027885020122873055,-0.023279449335625143,-0.029405620213421232,-0.0267017185138781,-0.02226571594192636,-0.02091376509215479,-0.013942510061436528,-0.023490950117485577,-0.019350313460522794,-0.008576639228914527,0,0,0,0,0,0,0,0,0,0,0,0,0,0,0,0,0,0,0,0,0,0,0,0,0,0,0,0,0,0,0,0,0,0,0,0,0,0,0,-0.001225234175559218,-0.0395037785074035,-0.045376516036774894,-0.02813845347129775,-0.003675702526677654,0,-0.00612617087779609,-0.01225234175559218,-0.01225234175559218,-0.004900936702236872,-0.002450468351118436,-0.008576639228914527,-0.003675702526677654,-0.004900936702236872,0,-0.00612617087779609,-0.007351405053355308,-0.004900936702236872,-0.007351405053355308,0,0,-0.013477575931151398,0,0,0,0,-0.019603746808947487,-0.052601204415917854,-0.03718002683049741,0,0,0,-0.004900936702236872,0,0,0,-0.008576639228914527,-0.03865869435448133,-0.054798239418611595,-0.03718002683049741,-0.002450468351118436,0,0,-0.040264078552677586,-0.04930565191187724,-0.022392432616138706,0,0,0,0,-0.01225234175559218,-0.019603746808947487,-0.03747539274548636,-0.029405620213421232,-0.013477575931151398,0,-0.022054215160065924,-0.03063085438898045,-0.020828980984506706,-0.03308132274009889,-0.015928044282269835,-0.004900936702236872,0,-0.01837851263338827,-0.028180386037862014,-0.03870062692104559,-0.04748876693182054,-0.01787164593653888,0,-0.017153278457829053,-0.023279449335625143,-0.009801873404473744,0,-0.004900936702236872,-0.007351405053355308,-0.032067589346400104,-0.035870008547290104,0,-0.004900936702236872,-0.026955151862302795,-0.020828980984506706,-0.02374438346591027,-0.04001064520425289,-0.0455451652775515,-0.03430655691565811,-0.028180386037862014,-0.04165796196901341,-0.0536568703761809,-0.046558898671250286,-0.07292331870357516,-0.07668380533790091,-0.07203630198408872,-0.06202292779775455,-0.011027107580032962,-0.018125079284963576,-0.056318839509159765,-0.05243163620062168,-0.03185608856453967,-0.002450468351118436,-0.007097971704930612,-0.04343291438250585,-0.03485627515359132,-0.02936368764685697,-0.003675702526677654,-0.013477575931151398,-0.029025470190784188,-0.03747539274548636,-0.03785554276812341,-0.026955151862302795,-0.017153278457829053,-0.01225234175559218,-0.019603746808947487,-0.03663030859256419,-0.04271454690379602,-0.022519149290351054,-0.020828980984506706,-0.023279449335625143,-0.033419540196171674,-0.04588338273362428,-0.06337487864752613,-0.06764223197870126,-0.05112253689193394,-0.02167406513742888,-0.023279449335625143,-0.03063085438898045,-0.020828980984506706,0,0,-0.00612617087779609,-0.023152732661412795,-0.024377966836972013,-0.011027107580032962,-0.00612617087779609,-0.023279449335625143,-0.029405620213421232,-0.03185608856453967,-0.03308132274009889,-0.015928044282269835,0,-0.00612617087779609,0,0,0,0,0,0,-0.022054215160065924,-0.03063085438898045,-0.00612617087779609,-0.001225234175559218,-0.020828980984506706,-0.004900936702236872,0,-0.013477575931151398,-0.014702810106710616,-0.001225234175559218,0,-0.001225234175559218,0,0,0,0,0,0,0,0,0,0,0,0,0,0,0,0,0,0,0,0,0,0,0,0,0,0,0,0,0,0,0,0,0,0,0,0,0,0,0,0,0,0,0,0,0,0,0,0,0,0,0,0,0,0,0,0,0,0,0,0,0,0,0,0,0,0,0,0,0,0,0,0,0,0,0,0,0,0,0,0,0,0,0,0,0,0,0,0,0,0,0,0,0,0,0,0,0,0,0,0,0,0,0,0,0,0,0,0,0,0,0,0,0,0,0,0,0,0,0,0,0,0,0,0,0,0,0,0,0,0,0,0,0,0,0,0,0,0,0,0,0,0,0,0,0,0,0,0,0,0,0,0,0,0,0,0,0,0,0,0,0,0,0,0,0,0,0,0,0,0,0,0,0,0,0,0,0,0,0,0,0,0,0,0,0,0,0,0,0,0,0,0,0,0,0,0,0,0,0,0,0,0,0,0,0,0,0,0,0,0,0,0,0,0,0,0,0,0,0,0,0,0,0,0,0,0,0,0,0,0,0,0,0,0,0,0,0,0,0,0,0,0,0,0,0,0,0,0,0,0,0,0,0,0,0,0,0,0,0,0,0,0,0,0,0,0,0,0,0,0,0,0,0,0,0,0,0,0,0,0,0,0,0,0,0,0,0,0,0,0,0,0,0,0,0,0,0,0,0,0,0,0,0,0,0,0,0,0,0,0,0,0,0,0,0,0,0,0,0,0,0,0,0,0,0,0,0,0,0,0,0,0]}';
